<?xml version="1.0"?>
<opencv_storage>
<myhaar type_id="opencv-haar-classifier">
  <size>
    24 24</size>
  <stages>
    <_>
      <trees>
        <_>
          <_>
            <feature>
              <rects>
                <_>
                  0 0 24 24 -1.</_>
                <_>
                  8 8 8 8 9.</_></rects>
              <tilted>0</tilted></feature>
            <threshold>1.0735490322113037</threshold>
            <left_val>-1.</left_val>
            <right_val>0.9909067749977112</right_val></_></_></trees>
      <stage_threshold>0.9909067749977112</stage_threshold>
      <parent>-1</parent>
      <next>-1</next></_>
    <_>
      <trees>
        <_>
          <_>
            <feature>
              <rects>
                <_>
                  5 0 14 8 -1.</_>
                <_>
                  5 4 14 4 2.</_></rects>
              <tilted>0</tilted></feature>
            <threshold>0.0995651334524155</threshold>
            <left_val>-1.</left_val>
            <right_val>0.9466664791107178</right_val></_></_>
        <_>
          <_>
            <feature>
              <rects>
                <_>
                  16 10 8 4 -1.</_>
                <_>
                  16 10 4 4 2.</_></rects>
              <tilted>0</tilted></feature>
            <threshold>2.3299329914152622e-003</threshold>
            <left_val>-0.9504706859588623</left_val>
            <right_val>0.5418673157691956</right_val></_></_>
        <_>
          <_>
            <feature>
              <rects>
                <_>
                  2 6 14 8 -1.</_>
                <_>
                  2 6 7 4 2.</_>
                <_>
                  9 10 7 4 2.</_></rects>
              <tilted>0</tilted></feature>
            <threshold>-2.8576490003615618e-003</threshold>
            <left_val>1.</left_val>
            <right_val>-1.</right_val></_></_></trees>
      <stage_threshold>0.9961957931518555</stage_threshold>
      <parent>0</parent>
      <next>-1</next></_>
    <_>
      <trees>
        <_>
          <_>
            <feature>
              <rects>
                <_>
                  0 11 8 4 -1.</_>
                <_>
                  4 11 4 4 2.</_></rects>
              <tilted>0</tilted></feature>
            <threshold>0.0254872608929873</threshold>
            <left_val>-1.</left_val>
            <right_val>0.6976736187934876</right_val></_></_></trees>
      <stage_threshold>0.6976736187934876</stage_threshold>
      <parent>1</parent>
      <next>-1</next></_>
    <_>
      <trees>
        <_>
          <_>
            <feature>
              <rects>
                <_>
                  4 1 10 5 -1.</_>
                <_>
                  9 1 5 5 2.</_></rects>
              <tilted>0</tilted></feature>
            <threshold>0.0447977185249329</threshold>
            <left_val>-0.7739943265914917</left_val>
            <right_val>0.7485026121139526</right_val></_></_>
        <_>
          <_>
            <feature>
              <rects>
                <_>
                  12 12 6 12 -1.</_>
                <_>
                  14 16 2 4 9.</_></rects>
              <tilted>0</tilted></feature>
            <threshold>0.0331422798335552</threshold>
            <left_val>-0.4296574890613556</left_val>
            <right_val>0.4555655121803284</right_val></_></_>
        <_>
          <_>
            <feature>
              <rects>
                <_>
                  6 12 6 12 -1.</_>
                <_>
                  8 16 2 4 9.</_></rects>
              <tilted>0</tilted></feature>
            <threshold>0.0220541507005692</threshold>
            <left_val>-1.</left_val>
            <right_val>0.4899035990238190</right_val></_></_></trees>
      <stage_threshold>-0.7137482762336731</stage_threshold>
      <parent>2</parent>
      <next>-1</next></_>
    <_>
      <trees>
        <_>
          <_>
            <feature>
              <rects>
                <_>
                  2 3 14 9 -1.</_>
                <_>
                  2 6 14 3 3.</_></rects>
              <tilted>0</tilted></feature>
            <threshold>0.0276603996753693</threshold>
            <left_val>0.4455446898937225</left_val>
            <right_val>-1.0000040531158447</right_val></_></_></trees>
      <stage_threshold>0.4455446898937225</stage_threshold>
      <parent>3</parent>
      <next>-1</next></_>
    <_>
      <trees>
        <_>
          <_>
            <feature>
              <rects>
                <_>
                  1 3 10 12 -1.</_>
                <_>
                  1 7 10 4 3.</_></rects>
              <tilted>0</tilted></feature>
            <threshold>0.0176685508340597</threshold>
            <left_val>-1.</left_val>
            <right_val>0.5208336114883423</right_val></_></_></trees>
      <stage_threshold>0.5208336114883423</stage_threshold>
      <parent>4</parent>
      <next>-1</next></_></stages></myhaar>
</opencv_storage>
