<?xml version="1.0"?>
<opencv_storage>
<myhaar type_id="opencv-haar-classifier">
  <size>
    24 24</size>
  <stages>
    <_>
      <trees>
        <_>
          <_>
            <feature>
              <rects>
                <_>
                  0 0 18 24 -1.</_>
                <_>
                  6 8 6 8 9.</_></rects>
              <tilted>0</tilted></feature>
            <threshold>0.3807856142520905</threshold>
            <left_val>-1.</left_val>
            <right_val>0.9310343861579895</right_val></_></_></trees>
      <stage_threshold>0.9310343861579895</stage_threshold>
      <parent>-1</parent>
      <next>-1</next></_>
    <_>
      <trees>
        <_>
          <_>
            <feature>
              <rects>
                <_>
                  0 0 24 2 -1.</_>
                <_>
                  6 0 12 2 2.</_></rects>
              <tilted>0</tilted></feature>
            <threshold>0.0348089300096035</threshold>
            <left_val>-0.8620690107345581</left_val>
            <right_val>0.9259260296821594</right_val></_></_>
        <_>
          <_>
            <feature>
              <rects>
                <_>
                  17 12 6 4 -1.</_>
                <_>
                  19 14 2 4 3.</_></rects>
              <tilted>1</tilted></feature>
            <threshold>-7.4789172504097223e-004</threshold>
            <left_val>-1.</left_val>
            <right_val>0.5279675126075745</right_val></_></_></trees>
      <stage_threshold>-0.3341015875339508</stage_threshold>
      <parent>0</parent>
      <next>-1</next></_>
    <_>
      <trees>
        <_>
          <_>
            <feature>
              <rects>
                <_>
                  9 3 10 2 -1.</_>
                <_>
                  9 3 10 1 2.</_></rects>
              <tilted>1</tilted></feature>
            <threshold>-1.4719170576427132e-004</threshold>
            <left_val>-1.</left_val>
            <right_val>0.8064514994621277</right_val></_></_></trees>
      <stage_threshold>0.8064514994621277</stage_threshold>
      <parent>1</parent>
      <next>-1</next></_>
    <_>
      <trees>
        <_>
          <_>
            <feature>
              <rects>
                <_>
                  3 3 1 2 -1.</_>
                <_>
                  3 4 1 1 2.</_></rects>
              <tilted>0</tilted></feature>
            <threshold>6.7886750912293792e-005</threshold>
            <left_val>-1.</left_val>
            <right_val>0.8064516782760620</right_val></_></_></trees>
      <stage_threshold>0.8064516782760620</stage_threshold>
      <parent>2</parent>
      <next>-1</next></_>
    <_>
      <trees>
        <_>
          <_>
            <feature>
              <rects>
                <_>
                  5 18 3 2 -1.</_>
                <_>
                  5 18 3 1 2.</_></rects>
              <tilted>1</tilted></feature>
            <threshold>4.0932297706604004e-003</threshold>
            <left_val>-1.</left_val>
            <right_val>0.8666666746139526</right_val></_></_></trees>
      <stage_threshold>0.8666666746139526</stage_threshold>
      <parent>3</parent>
      <next>-1</next></_>
    <_>
      <trees>
        <_>
          <_>
            <feature>
              <rects>
                <_>
                  4 2 10 22 -1.</_>
                <_>
                  4 2 5 11 2.</_>
                <_>
                  9 13 5 11 2.</_></rects>
              <tilted>0</tilted></feature>
            <threshold>-0.0308749303221703</threshold>
            <left_val>0.8571429252624512</left_val>
            <right_val>-0.8571435213088989</right_val></_></_>
        <_>
          <_>
            <feature>
              <rects>
                <_>
                  20 0 4 20 -1.</_>
                <_>
                  15 5 4 10 2.</_></rects>
              <tilted>1</tilted></feature>
            <threshold>0.1995213925838471</threshold>
            <left_val>-0.2325159013271332</left_val>
            <right_val>1.</right_val></_></_>
        <_>
          <_>
            <feature>
              <rects>
                <_>
                  1 7 3 9 -1.</_>
                <_>
                  2 10 1 3 9.</_></rects>
              <tilted>0</tilted></feature>
            <threshold>1.1361479992046952e-003</threshold>
            <left_val>-1.</left_val>
            <right_val>0.7928910851478577</right_val></_></_></trees>
      <stage_threshold>-0.2967683076858521</stage_threshold>
      <parent>4</parent>
      <next>-1</next></_>
    <_>
      <trees>
        <_>
          <_>
            <feature>
              <rects>
                <_>
                  3 3 12 20 -1.</_>
                <_>
                  3 3 6 10 2.</_>
                <_>
                  9 13 6 10 2.</_></rects>
              <tilted>0</tilted></feature>
            <threshold>-0.0333280004560947</threshold>
            <left_val>0.8571429252624512</left_val>
            <right_val>-0.8571435213088989</right_val></_></_>
        <_>
          <_>
            <feature>
              <rects>
                <_>
                  21 11 2 4 -1.</_>
                <_>
                  22 11 1 2 2.</_>
                <_>
                  21 13 1 2 2.</_></rects>
              <tilted>0</tilted></feature>
            <threshold>-2.0211900118738413e-004</threshold>
            <left_val>-0.6209502816200256</left_val>
            <right_val>0.2467816025018692</right_val></_></_>
        <_>
          <_>
            <feature>
              <rects>
                <_>
                  4 2 8 10 -1.</_>
                <_>
                  4 2 4 5 2.</_>
                <_>
                  8 7 4 5 2.</_></rects>
              <tilted>0</tilted></feature>
            <threshold>1.9132960005663335e-004</threshold>
            <left_val>0.7932764887809753</left_val>
            <right_val>-0.9999997019767761</right_val></_></_></trees>
      <stage_threshold>0.1829147040843964</stage_threshold>
      <parent>5</parent>
      <next>-1</next></_>
    <_>
      <trees>
        <_>
          <_>
            <feature>
              <rects>
                <_>
                  11 4 6 10 -1.</_>
                <_>
                  13 6 2 10 3.</_></rects>
              <tilted>1</tilted></feature>
            <threshold>8.9135468006134033e-003</threshold>
            <left_val>-1.</left_val>
            <right_val>0.7500001192092896</right_val></_></_></trees>
      <stage_threshold>0.7500001192092896</stage_threshold>
      <parent>6</parent>
      <next>-1</next></_>
    <_>
      <trees>
        <_>
          <_>
            <feature>
              <rects>
                <_>
                  1 10 3 3 -1.</_>
                <_>
                  2 10 1 3 3.</_></rects>
              <tilted>0</tilted></feature>
            <threshold>4.2580408626236022e-004</threshold>
            <left_val>0.6969698071479797</left_val>
            <right_val>-1.</right_val></_></_></trees>
      <stage_threshold>0.6969698071479797</stage_threshold>
      <parent>7</parent>
      <next>-1</next></_>
    <_>
      <trees>
        <_>
          <_>
            <feature>
              <rects>
                <_>
                  0 3 9 9 -1.</_>
                <_>
                  3 6 3 3 9.</_></rects>
              <tilted>0</tilted></feature>
            <threshold>-0.0316690504550934</threshold>
            <left_val>-1.</left_val>
            <right_val>0.6969696283340454</right_val></_></_></trees>
      <stage_threshold>0.6969696283340454</stage_threshold>
      <parent>8</parent>
      <next>-1</next></_>
    <_>
      <trees>
        <_>
          <_>
            <feature>
              <rects>
                <_>
                  5 21 3 3 -1.</_>
                <_>
                  6 22 1 1 9.</_></rects>
              <tilted>0</tilted></feature>
            <threshold>-2.5197709328494966e-004</threshold>
            <left_val>-1.</left_val>
            <right_val>0.6969696879386902</right_val></_></_></trees>
      <stage_threshold>0.6969696879386902</stage_threshold>
      <parent>9</parent>
      <next>-1</next></_>
    <_>
      <trees>
        <_>
          <_>
            <feature>
              <rects>
                <_>
                  7 9 1 9 -1.</_>
                <_>
                  7 12 1 3 3.</_></rects>
              <tilted>0</tilted></feature>
            <threshold>1.4938190579414368e-003</threshold>
            <left_val>0.7500001192092896</left_val>
            <right_val>-1.0000009536743164</right_val></_></_></trees>
      <stage_threshold>0.7500001192092896</stage_threshold>
      <parent>10</parent>
      <next>-1</next></_></stages></myhaar>
</opencv_storage>
