<?xml version="1.0"?>
<opencv_storage>
<myhaar type_id="opencv-haar-classifier">
  <size>
    24 24</size>
  <stages>
    <_>
      <trees>
        <_>
          <_>
            <feature>
              <rects>
                <_>
                  0 0 24 24 -1.</_>
                <_>
                  8 8 8 8 9.</_></rects>
              <tilted>0</tilted></feature>
            <threshold>1.0595519542694092</threshold>
            <left_val>-1.</left_val>
            <right_val>0.9595940709114075</right_val></_></_></trees>
      <stage_threshold>0.9595940709114075</stage_threshold>
      <parent>-1</parent>
      <next>-1</next></_>
    <_>
      <trees>
        <_>
          <_>
            <feature>
              <rects>
                <_>
                  0 12 10 9 -1.</_>
                <_>
                  5 12 5 9 2.</_></rects>
              <tilted>0</tilted></feature>
            <threshold>0.0876969993114471</threshold>
            <left_val>-1.</left_val>
            <right_val>0.9303475022315979</right_val></_></_>
        <_>
          <_>
            <feature>
              <rects>
                <_>
                  8 0 8 12 -1.</_>
                <_>
                  8 3 8 6 2.</_></rects>
              <tilted>0</tilted></feature>
            <threshold>0.0291720293462276</threshold>
            <left_val>-1.</left_val>
            <right_val>0.8415827751159668</right_val></_></_>
        <_>
          <_>
            <feature>
              <rects>
                <_>
                  0 0 4 4 -1.</_>
                <_>
                  0 0 2 2 2.</_>
                <_>
                  2 2 2 2 2.</_></rects>
              <tilted>0</tilted></feature>
            <threshold>1.0763359568954911e-005</threshold>
            <left_val>-1.</left_val>
            <right_val>1.</right_val></_></_>
        <_>
          <_>
            <feature>
              <rects>
                <_>
                  22 0 2 1 -1.</_>
                <_>
                  22 0 1 1 2.</_></rects>
              <tilted>0</tilted></feature>
            <threshold>0.</threshold>
            <left_val>0.</left_val>
            <right_val>-1.</right_val></_></_>
        <_>
          <_>
            <feature>
              <rects>
                <_>
                  0 0 4 12 -1.</_>
                <_>
                  1 0 2 12 2.</_></rects>
              <tilted>0</tilted></feature>
            <threshold>-4.4311098463367671e-005</threshold>
            <left_val>1.</left_val>
            <right_val>-1.</right_val></_></_></trees>
      <stage_threshold>2.7719299793243408</stage_threshold>
      <parent>0</parent>
      <next>-1</next></_>
    <_>
      <trees>
        <_>
          <_>
            <feature>
              <rects>
                <_>
                  10 1 4 4 -1.</_>
                <_>
                  10 1 4 2 2.</_></rects>
              <tilted>1</tilted></feature>
            <threshold>-1.5418779803439975e-003</threshold>
            <left_val>-1.</left_val>
            <right_val>0.6234301924705505</right_val></_></_></trees>
      <stage_threshold>0.6234301924705505</stage_threshold>
      <parent>1</parent>
      <next>-1</next></_>
    <_>
      <trees>
        <_>
          <_>
            <feature>
              <rects>
                <_>
                  5 20 14 4 -1.</_>
                <_>
                  5 22 14 2 2.</_></rects>
              <tilted>0</tilted></feature>
            <threshold>-0.0264858994632959</threshold>
            <left_val>0.8361852169036865</left_val>
            <right_val>-0.7474799752235413</right_val></_></_>
        <_>
          <_>
            <feature>
              <rects>
                <_>
                  12 0 4 12 -1.</_>
                <_>
                  12 0 2 12 2.</_></rects>
              <tilted>1</tilted></feature>
            <threshold>-0.0344187803566456</threshold>
            <left_val>0.1484714001417160</left_val>
            <right_val>-0.9999926090240479</right_val></_></_>
        <_>
          <_>
            <feature>
              <rects>
                <_>
                  12 0 12 4 -1.</_>
                <_>
                  12 0 12 2 2.</_></rects>
              <tilted>1</tilted></feature>
            <threshold>-0.0722266584634781</threshold>
            <left_val>0.9642565846443176</left_val>
            <right_val>-0.7080097794532776</right_val></_></_></trees>
      <stage_threshold>0.2766467928886414</stage_threshold>
      <parent>2</parent>
      <next>-1</next></_></stages></myhaar>
</opencv_storage>
